80.702274
251.603748
589.660142
-141.818340
15.249803
-186.502202
547.535042
1009.222114
-38.667533
193.103815
-274.286524
10.449648
-600.158066
312.490035
-83.540599
-109.525305
-55.330450
162.707699
346.126121
-125.032117
-644.500892
1162.060277
135.018410
156.016152
190.266625
-33.842322
-18.499764
543.172389
41.392052
-351.782692
-173.885873
138.239064
-362.856441
73.900614
-270.404592
27.679151
-108.357142
-719.182194
-284.920166
575.818211
45.973716
411.955414
-1423.086843
42.664617
546.778028
521.046111
470.937834
321.790720
660.855389
-818.755686
200.112838
-1211.230445
455.111975
-679.159404
-57.771415
-631.381937
66.401638
194.120531
70.189251
581.177617
-233.619586
220.883920
-460.903307
334.780574
89.914442
710.984047
-152.110848
-470.025363
389.932736
285.342800
238.867725
-2199.261091
297.672441
748.122676
-130.673958
2080.349432
172.319901
79.483095
359.602890
619.374936
-456.032708
186.092259
-215.080541
-366.755658
156.273866
-453.961743
-321.264945
-309.680747
-397.524584
208.395844
410.593452
-52.204958
284.189452
81.641035
515.175918
-112.418912
-18.986710
-427.855427
-144.877420
933.061525
1634.175237
426.028300
-241.143466
239.760296
202.985426
-287.954209
243.339218
-266.733695
-353.744704
-12.096507
-77.523024
528.383763
31.541414
-126.999535
-56.156390
-65.576536
187.318153
-108.959811
-68.961427
-294.885542
-229.746287
-70.680764
62.585595
-204.189577
101.366041
-53.920416
175.359594
245.846703
288.656763
-271.195398
-162.506225
209.598972
-192.677061
-329.922731
-123.367553
107.398327
-848.558957
49.658665
9.551228
344.913483
170.615579
-135.450137
-0.305254
142.179282
-121.075360
-204.585836
167.453465
221.151017
17.648137
222.317632
351.499435
90.496433
-177.581736
102.259664
-245.246004
175.994718
-20.464579
-228.784260
-183.495595
-39.152766
-251.938424
271.485595
161.715966
-80.902500
-303.536405
225.484193
229.380603
244.379700
265.324393
280.193149
133.486453
-42.925462
308.530604
91.404899
276.401570
198.337455
29.181272
145.317807
18.274238
-202.543244
279.492136
-153.271472
172.766059
-283.100526
-52.934565
232.949605
283.065010
83.112973
-498.131770
10.575257
-9.158658
-136.257966
-435.126514
43.940884
103.340464
-192.327913
225.734339
-230.185886
41.399824
-238.313946
-126.454497
-13.323211
-79.367929
178.021731
56.874219
-2731.693065
99.992977
443.520622
7.721521
-245.392511
196.586250
230.328926
-9.381051
-149.002316
144.074031
213.912204
266.676673
109.489191
54.104054
-124.041336
-3.464040
-277.770098
-86.436464
-347.102907
78.647217
-203.327568
-345.579909
119.889735
-27.658067
-388.066428
-308.796509
-302.659883
-135.477080
241.555261
-195.595680
67.183563
229.261695
215.873331
303.920186
-160.817775
127.370678
313.499081
-77.298794
-35.776930
-200.669941
214.598458
166.976279
-171.625717
-7.664474
21.424493
154.039169
-103.840128
24.664843
-405.489712
-82.895584
365.300710
-127.361516
-87.580815
-162.292870
80.889347
-8.878724
-55.738826
123.593792
1190.812716
31.597664
110.661389
-290.274634
-96.487865
94.701308
-9.694875
-34.967991
-136.382772
-27.180271
97.033244
-101.775794
83.417782
-15.783053
83.053506
-584.178032
64.404752
103.482004
-38.560862
137.082891
-40.262080
-69.176166
-57.524151
-131.238791
227.940921
-178.470813
270.395577
242.667624
-795.497374
118.456801
-219.688518
-133.044027
31.182119
14.416161
141.009510
109.071043
-146.551370
-132.772060
-101.727446
13.119261
129.090907
-231.134950
-551.610109
72.779284
186.326909
-1190.989265
860.035121
85.295414
-100.528886
84.960987
-714.280288
-142.727009
-56.891132
-116.659940
-48.353275
159.830416
-20.035224
59.512204
14.926254
-95.683384
115.415055
54.672300
264.569700
24.145972
-3.417009
-97.439595
586.619390
-111.669442
105.793828
16.157500
-146.815343
48.188415
-100.668678
-138.188147
67.148257
348.116323
-399.314390
-118.087858
-400.692100
-34.547774
-176.188311
83.555781
76.933816
35.601369
-606.598305
30.855066
-186.682371
-7.267774
-1361.881107
-182.949132
161.820862
291.445636
183.068693
-61.814684
7.238199
-83.303974
69.618307
560.281060
107.687799
-419.012468
150.733445
213.746605
-118.170198
29.451547
-61.128054
-115.236786
26.495703
78.257736
-73.864756
86.220676
55.955594
-289.352710
-22.159368
34.760235
117.526268
605.442321
106.969121
4.708582
58.605735
-282.970292
75.961316
-150.123485
-28.351954
64.166156
-244.255732
68.311356
86.115486
326.413460
417.927372
97.697990
-71.010989
536.669328
37.454184
-96.758545
-43.466025
-106.954074
189.733257
112.901507
89.591285
-704.248680
167.138312
112.097289
6.623901
452.106192
-11.828598
115.837865
14.677817
-60.105596
-17.708015
-98.080908
161.633467
33.089280
-42.494158
64.139339
348.537469
-185.048914
30.051106
-98.131696
59.296042
62.467970
57.465556
-137.668338
-38.339527
-25.843838
-40.341436
-89.712150
130.448016
-39.646395
-10.207210
-27.007395
65.773765
-188.179111
50.388860
-124.289121
-178.168890
30.173557
-273.705642
55.915086
84.746087
94.317404
-47.026832
112.326017
-279.973000
39.006022
68.212129
-108.409307
104.558659
-111.539508
-307.214571
-198.731034
-84.034759
-265.487412
-169.212593
231.101933
-252.061867
78.488186
-72.577733
4.801189
53.936587
-28.345359
-355.220556
43.839229
-76.358089
-85.455493
45.864418
16.982324
-11.367877
46.310428
-39.055314
-67.194356
-68.032003
309.247527
-51.903347
-22.987320
69.199856
-321.295177
67.635860
85.583099
-31.022412
77.760621
64.194564
32.092471
-28.770167
-30.911372
-58.438592
-37.232202
120.896002
-61.914683
-40.050940
-83.471014
-124.383073
-55.472314
149.254215
4.206285
-152.800070
-194.827587
-2.478523
-56.614645
95.694015
138.997866
-86.281176
-287.163899
97.971457
47.956111
-176.822928
90.579797
116.748848
40.419881
-59.994290
-142.893779
-5.328190
65.671665
-75.337975
-21.681189
3.296146
-28.753699
-130.875614
16.223516
38.330533
22.597108
-46.697823
33.333335
110.070156
-233.602534
-151.746876
-6.011684
42.158308
-57.770728
-53.553595
264.779374
-107.946305
-1.361496
43.786675
-94.522415
-37.747519
82.599000
50.904120
-61.212881
-3.668684
-88.331253
-59.297864
14.965947
-30.684872
-58.640974
137.880325
-315.318286
79.429026
157.068215
-46.213322
170.029050
50.144381
284.966628
-199.696163
-61.734297
160.528337
-134.720908
118.057379
-557.515736
135.099502
9.023547
-12.862394
-186.248703
75.666437
-114.847358
3.225312
59.382662
100.619748
134.794140
91.750991
6.822657
108.471034
20.743628
-101.143977
-108.831132
52.077409
-58.814822
-250.622986
58.059382
175.299382
83.605017
134.662201
42.843273
120.431824
70.394890
6.997454
-238.664613
-84.188297
-24.363720
43.285676
35.942906
24.300044
82.190002
-3.685357
-103.095216
-114.948023
49.377964
187.445492
21.416366
122.674637
-59.003311
-21.270044
37.401740
-15.645082
7.375576
-70.532862
-484.071879
-13.864660
-31.366214
86.228311
-192.369782
-45.009130
306.295230
-52.897670
31.722058
-99.413943
-121.364096
41.688624
64.304754
27.967636
88.268375
5.721030
-13.296759
100.387760
16.339973
148.225133
-69.479706
23.111299
-45.647167
-72.243363
-233.981430
14.709528
20.618415
95.337300
-355.085007
-89.702663
-1.270765
6.505441
-66.204002
8.724975
227.055623
-86.635559
-56.721351
89.077602
172.504545
74.840591
25.250745
26.739930
86.364764
12.977551
-57.021647
37.482808
-51.888165
-62.277075
44.319229
137.822137
187.079232
-302.254073
43.623501
-122.397148
-83.597038
-87.747895
-138.326584
-94.677588
45.546842
8.527959
25.049073
-59.762110
136.826277
-26.834446
86.700002
-19.721912
124.767072
86.057932
-77.833113
-43.416654
-33.639013
-119.152611
-42.636405
-138.943681
118.552608
-33.972297
238.375556
69.998630
-230.714427
-17.481631
29.871129
72.682636
-30.981095
27.665514
-26.378251
95.874282
-30.742088
-94.382551
-40.049940
37.390571
101.989821
-107.150673
-72.629805
-20.653957
64.467494
-34.914505
-155.149795
4.770988
24.847771
88.126612
64.273057
-64.747040
-27.144611
-53.611518
-56.202660
-85.589992
-49.692908
-100.656922
-110.854840
-62.042230
-37.027047
55.923674
56.120115
-12.460357
-98.356832
100.306166
120.928747
-313.604418
71.856356
45.364541
-15.983909
-163.657186
42.974955
-79.823005
71.720254
49.757964
-18.566335
61.061536
-75.025568
134.910900
-83.273692
171.702638
-75.175358
-8.960990
-82.816659
-50.181510
32.435269
11.764335
-183.263040
-73.859650
26.973748
-49.283233
-1.761828
-98.377419
-9.164333
120.431545
33.299874
22.784478
-271.615320
-70.194644
181.011852
125.248382
-10.973017
69.485665
11.301209
-247.242762
-123.533215
-60.524516
14.052656
-106.697114
-31.095838
133.859961
153.297059
-84.264374
-17.076856
17.295252
19.278792
26.284742
-5.370420
-98.966485
124.955674
20.611366
93.233663
-101.023817
73.102026
194.174165
-39.733430
36.942564
46.587115
114.497936
-85.073310
1.542436
-49.633775
163.401442
-46.274867
14.758479
96.534106
49.564156
22.196674
146.827069
-0.168742
-254.239989
47.160998
-23.801448
-217.764561
-149.367299
-102.319002
11.168979
188.152081
-168.626170
22.782419
5.368398
63.851097
3.705685
7.466211
84.688605
-66.116269
77.219615
-31.465617
-84.627993
40.301606
65.476130
37.973773
-26.254862
-63.047757
-9.886426
-12.866064
-35.914968
-48.919512
-246.869227
4.172358
-0.421790
8.427219
70.733872
7.346870
69.658032
-19.468776
-46.985481
77.463559
-18.852099
64.693649
69.375618
10.493960
63.805310
73.833450
-49.304805
47.471696
54.238848
108.836291
16.573034
-66.189735
-98.838360
85.832215
4.641339
-100.127065
-44.906632
37.782465
14.802908
-25.571886
-44.908627
61.574328
-95.322553
-52.093677
-14.049577
-82.886454
1.026547
67.759515
85.953703
-222.833688
60.126330
58.328584
32.351890
-117.084860
-87.997621
30.296517
-2.507344
115.205679
0.714681
171.332989
-52.903140
-95.853654
86.546707
235.286635
71.033226
55.180663
9.603139
-88.787753
-57.759647
52.217490
-40.273962
66.721533
-69.552261
-115.023320
-36.829601
-48.073774
-38.682475
-103.501599
-40.948364
38.463739
-99.600393
-74.160536
-27.219296
64.711774
81.958280
-61.743759
74.501538
52.929280
50.882314
-117.557753
10.665951
29.793794
-74.014621
22.699273
24.266801
47.220735
115.527190
-58.282397
-99.875049
-130.292516
-25.219661
-46.105553
60.277860
-221.913969
-70.057707
31.120039
138.710675
263.544886
53.531906
46.578213
4.430270
63.317360
-87.057357
17.838599
-43.329892
78.800700
-53.412269
-22.944271
55.493217
-25.333796
59.366983
15.117861
51.066666
20.869317
66.809042
70.048246
-32.586490
-36.012745
-48.042175
32.780479
-51.873366
47.938838
-46.732158
-14.782162
-82.692467
9.377075
71.388581
32.357455
-23.786067
-42.108906
57.310048
69.801096
-39.479813
12.769732
-58.005303
-66.710546
-88.725216
-48.331845
91.849742
-28.331384
0.957977
42.519284
10.713891
-60.110854
70.468912
-66.195225
-15.987698
-24.274199
-33.136313
-58.528784
21.160349
26.197123
78.951070
29.181650
89.042076
-40.480512
-93.379754
-47.142990
59.473338
126.057377
-11.220725
-64.173476
13.595047
36.291561
91.682698
-106.041087
-6.706405
26.478377
-53.278225
-55.965474
14.126012
-87.598248
56.015263
77.945222
37.142010
-108.009598
-19.520302
-193.777560
-44.547025
-54.247075
73.239436
-44.303157
-52.991112
-9.609085
-69.709910
-33.854332
88.322257
42.300994
-51.711753
21.736984
47.979216
94.357079
-27.017537
-43.994497
-26.622892
-66.898789
-31.540865
93.223304
-53.525663
-46.473538
-2.480850
31.065628
42.213060
17.882473
58.458999
9.792900
-81.857860
18.790119
40.156870
15.183447
74.707853
-13.512927
-50.874130
54.977652
29.983442
83.769832
31.240258
-65.761282
16.466782
37.742988
26.016797
-82.223520
-67.460915
42.445753
-150.474332
84.721497
38.396976
-27.206242
31.945548
26.235232
107.072349
0.892687
-56.860011
69.868394
16.890903
41.289449
-24.212036
29.025506
72.758672
-53.598578
92.560910
26.360636
79.477665
-32.600791
-19.052553
-31.866182
43.504700
40.979200
1.972065
-89.405438
6.124054
-38.173208
2.336665
-65.145711
-111.300421
-66.307720
59.873248
25.128339
44.166706
60.729166
36.849270
-21.794642
9.939900
-21.099026
-40.697136
-12.333023
-89.635473
36.935017
-7.035656
-24.893678
-129.259875
-10.024018
-102.243972
160.910193
-131.415405
57.130266
44.934769
-69.898462
-134.358139
81.984537
-0.757372
4.403315
-20.648640
-96.807966
162.215993
-35.503904
-129.229895
-32.705669
45.969201
7.434519
-62.729861
77.496147
-90.599890
31.763254
-18.715532
-96.841160
-43.834089
-3.297215
-98.669979
-48.597733
-72.389099
82.317839
54.638850
47.931574
79.607108
64.143779
18.796284
-4.683743
28.726784
-37.138890
-34.154201
-81.008736
50.780913
14.248854
37.480904
17.167161
48.787142
-48.748530
-76.027644
20.229555
86.657811
-91.912905
-0.332345
-55.863732
24.043854
30.636665
39.530125
-44.571532
-41.887783
56.308882
-9.721411
16.063971
23.992210
21.148640
-55.927068
22.713080
86.371325
14.879952
-62.262989
-101.091987
10.534823
-52.891559
-96.157863
63.094058
64.364749
106.488809
-103.556811
9.553888
-58.392534
-39.410515
-108.268730
-3.313621
63.007006
56.797434
5.129281
-43.412679
28.446509
33.878601
36.570482
-17.550719
25.747805
-26.164067
-43.409256
-8.825526
-38.976409
35.061479
-124.076281
23.369818
-17.488946
87.389644
-24.188591
-6.225243
-15.286496
21.669692
72.311045
38.684184
-132.836327
71.569032
-53.709846
-39.259424
30.360069
-22.124059
-53.206898
-11.322158
-78.193529
14.515900
-36.575086
-28.317849
3.437532
-3.424492
57.179363
14.085308
25.348269
-87.562553
58.764066
17.826294
25.376346
-151.914305
68.183165
-78.838759
34.877024
15.735822
22.244290
50.483029
38.423171
76.578244
-56.486022
72.475945
-58.014548
-243.241707
-30.174654
-23.449911
-65.164494
38.537805
-54.356576
-70.585570
-33.132458
-20.264976
51.772917
-22.688354
42.266252
12.257519
75.258855
-120.821155
-23.045965
50.321499
-4.097717
-26.573355
55.902595
-71.648501
36.151992
-101.804127
3.285894
56.917295
7.445660
-40.444456
20.398612
31.064015
38.601654
59.010719
15.506558
-36.740651
6.845157
111.129296
73.872664
-104.198212
-29.515730
83.023850
-61.962347
-39.294696
20.540986
19.462564
56.904404
7.736268
-37.150448
24.444760
9.404966
40.605683
29.269786
28.955901
15.967582
48.830307
43.666383
-22.184786
-33.640918
-32.480420
34.207926
-38.373762
34.361580
-22.121904
-11.917964
11.506075
23.653032
-151.164581
15.526356
-24.463897
-48.772014
18.720916
-2.655899
-23.423947
-63.136990
7.135178
36.081182
15.155360
-78.586658
-55.191767
9.924380
11.140179
-28.841541
14.492800
-7.712666
13.920787
-68.706919
18.963019
-62.667379
-60.817851
3.867574
-32.116569
-35.366816
-39.243195
58.562225
30.089292
35.752001
25.771808
23.641962
2.107515
-3.137953
-12.707527
31.986315
24.614976
-72.489877
26.978433
62.112256
12.421220
-18.319198
55.111711
33.779151
53.756424
40.899751
-48.729142
32.000163
3.666853
-58.483216
-18.064559
16.747630
22.965511
-2.568330
47.278678
17.662779
20.590020
-28.263667
118.137570
12.707723
-23.748937
25.475339
-19.037667
56.161108
-5.583185
10.820460
-32.341970
31.269699
-19.334435
18.452067
44.451760
7.367417
-18.556079
58.335858
0.016048
54.883006
-16.842713
-13.273949
25.411267
20.452205
4.673610
-8.326351
-9.156682
-11.856355
-5.246423
20.040704
22.286721
-12.715096
-9.771517
19.586920
-30.790863
-2.442195
-13.836460
-5.942121
-21.978550
22.917025
-0.493563
14.298742
-16.424548
1.713545
-89.727492
-1.998306
76.363670
18.621518
-21.029093
-8.094411
9.377388
-8.249246
19.650269
-43.200530
-17.853382
-56.240601
-21.198318
-64.650130
-48.019868
-26.596717
-69.074392